{"learner":{"attributes":{"best_iteration":"9","best_ntree_limit":"10","scikit_learn":"{\"use_label_encoder\": true, \"n_estimators\": 10, \"objective\": \"reg:logistic\", \"max_depth\": 5, \"learning_rate\": 0.1, \"verbosity\": null, \"booster\": null, \"tree_method\": null, \"gamma\": null, \"min_child_weight\": null, \"max_delta_step\": null, \"subsample\": null, \"colsample_bytree\": null, \"colsample_bylevel\": null, \"colsample_bynode\": null, \"reg_alpha\": null, \"reg_lambda\": null, \"scale_pos_weight\": null, \"base_score\": null, \"missing\": NaN, \"num_parallel_tree\": null, \"random_state\": 1, \"n_jobs\": null, \"monotone_constraints\": null, \"interaction_constraints\": null, \"importance_type\": null, \"gpu_id\": null, \"validate_parameters\": null, \"predictor\": null, \"enable_categorical\": false, \"classes_\": [-1.0, 1.0], \"n_classes_\": 2, \"_le\": {\"classes_\": [-1.0, 1.0]}, \"_estimator_type\": \"classifier\"}"},"feature_names":[],"feature_types":[],"gradient_booster":{"model":{"gbtree_model_param":{"num_trees":"10","size_leaf_vector":"0"},"tree_info":[0,0,0,0,0,0,0,0,0,0],"trees":[{"base_weights":[1.21212125E-1,1.370916E-1,-8.148148E-1,3.4332424E-1,7.345576E-2,-1.1111112E0,-1.5384616E-1,5.1282052E-2,5.488372E-1,-5.762712E-1,1.0673666E-1,-1.3846154E0,-2.2222222E-1,6.666667E-1,-1E0,1.369863E-1,-8.5714287E-1,5.904762E-1,-6.666667E-1,5E-1,-8.9361703E-1,8.976661E-2,6.666667E-1,5.6E-1,-8E-2,-1.2E0,-0E0,-1.0526316E-1,6.4615387E-1,1E0,-0E0,-1.3333334E-1,-1.1111112E0,1.4349777E-1,-1.23893805E-1,9.230769E-1,-1.8181819E-1],"categories":[],"categories_nodes":[],"categories_segments":[],"categories_sizes":[],"default_left":[true,true,true,true,true,true,true,true,true,true,true,false,false,false,false,true,true,true,false,true,true,true,true,false,false,false,false,false,false,false,false,false,false,false,false,false,false],"id":0,"left_children":[1,3,5,7,9,11,13,15,17,19,21,-1,-1,-1,-1,23,25,27,-1,29,31,33,35,-1,-1,-1,-1,-1,-1,-1,-1,-1,-1,-1,-1,-1,-1],"loss_changes":[5.9977007E0,5.096339E0,1.1509967E0,5.478549E0,6.5377464E0,7.86325E-1,2.9230769E0,3.153796E0,3.1140633E0,5.4846735E0,2.6553638E0,0E0,0E0,0E0,0E0,3.3950684E0,1.0285714E0,2.101715E0,0E0,1E0,1.7947989E0,3.21502E0,1.962704E0,0E0,0E0,0E0,0E0,0E0,0E0,0E0,0E0,0E0,0E0,0E0,0E0,0E0,0E0],"parents":[2147483647,0,0,1,1,2,2,3,3,4,4,5,5,6,6,7,7,8,8,9,9,10,10,15,15,16,16,17,17,19,19,20,20,21,21,22,22],"right_children":[2,4,6,8,10,12,14,16,18,20,22,-1,-1,-1,-1,24,26,28,-1,30,32,34,36,-1,-1,-1,-1,-1,-1,-1,-1,-1,-1,-1,-1,-1,-1],"split_conditions":[2.581915E0,-6.1058974E-1,2.701668E0,-7.546352E-1,-6.0354006E-1,7.3684335E-1,2.7886019E0,-7.5538397E-1,-6.070423E-1,-5.0279325E-1,2.3949862E0,-1.3846155E-1,-2.2222223E-2,6.666667E-2,-1E-1,-7.088697E-1,-7.403469E-1,-1.8479619E0,-6.666667E-2,-6.155883E-1,-6.2499166E-1,1.17485E0,5.41016E-1,5.6E-2,-8E-3,-1.20000005E-1,-0E0,-1.0526316E-2,6.461539E-2,1E-1,-0E0,-1.3333335E-2,-1.1111112E-1,1.4349776E-2,-1.23893805E-2,9.2307694E-2,-1.818182E-2],"split_indices":[1,2,1,2,1,0,1,1,1,0,1,0,0,0,0,0,0,0,0,1,1,1,0,0,0,0,0,0,0,0,0,0,0,0,0,0,0],"split_type":[0,0,0,0,0,0,0,0,0,0,0,0,0,0,0,0,0,0,0,0,0,0,0,0,0,0,0,0,0,0,0,0,0,0,0,0,0],"sum_hessian":[3.95E2,3.8925E2,5.75E0,9.075E1,2.985E2,3.5E0,2.25E0,3.8E1,5.275E1,1.375E1,2.8475E2,2.25E0,1.25E0,1.25E0,1E0,3.55E1,2.5E0,5.15E1,1.25E0,3E0,1.075E1,2.775E2,7.25E0,1.15E1,2.4E1,1.5E0,1E0,3.75E0,4.775E1,1E0,2E0,2.75E0,8E0,2.22E2,5.55E1,5.5E0,1.75E0],"tree_param":{"num_deleted":"0","num_feature":"3","num_nodes":"37","size_leaf_vector":"0"}},{"base_weights":[1.0855448E-1,1.2210749E-1,-8.7748635E-1,3.120854E-1,6.5617815E-2,-1.3361253E0,-1.4891192E-1,-3.0863035E-2,4.749867E-1,-7.3836184E-1,8.5020095E-2,2.2758985E-1,-7.036788E-1,5.543882E-1,-9.757583E-2,-1.037661E0,3.2045692E-2,-6.430229E-2,1.4574982E-1,6.1645025E-1,-1.1027623E-1,1.3920155E-1,-1.1311266E0,4.5620993E-1,1.1177354E0,-7.0470816E-1,1.0531664E0,-1.668417E-4,-1.3051422E0,4.513161E-1,7.773729E-2],"categories":[],"categories_nodes":[],"categories_segments":[],"categories_sizes":[],"default_left":[true,true,true,true,true,false,false,true,true,true,true,true,true,true,true,false,false,true,true,false,false,false,false,false,false,false,false,false,false,false,false],"id":1,"left_children":[1,3,5,7,9,-1,-1,11,13,15,17,19,21,23,25,-1,-1,27,29,-1,-1,-1,-1,-1,-1,-1,-1,-1,-1,-1,-1],"loss_changes":[5.3974366E0,4.1796966E0,1.6353722E0,5.0111723E0,4.7883577E0,0E0,0E0,5.331777E0,2.8134632E0,1.7030811E0,2.699929E0,2.9902425E0,3.2192578E0,2.4464989E0,6.500718E0,0E0,0E0,6.881596E0,4.3546476E0,0E0,0E0,0E0,0E0,0E0,0E0,0E0,0E0,0E0,0E0,0E0,0E0],"parents":[2147483647,0,0,1,1,2,2,3,3,4,4,7,7,8,8,9,9,10,10,11,11,12,12,13,13,14,14,17,17,18,18],"right_children":[2,4,6,8,10,-1,-1,12,14,16,18,20,22,24,26,-1,-1,28,30,-1,-1,-1,-1,-1,-1,-1,-1,-1,-1,-1,-1],"split_conditions":[2.6700506E0,-6.114146E-1,2.701668E0,-7.663686E-1,-6.2215614E-1,-1.3361253E-1,-1.4891192E-2,-7.735486E-1,-6.264932E-1,-6.065918E-1,-4.8391593E-1,-7.088697E-1,-7.7858806E-1,-6.321834E-1,-6.175103E-1,-1.037661E-1,3.2045692E-3,-4.8933694E-1,-6.4748067E-1,6.1645027E-2,-1.1027623E-2,1.3920155E-2,-1.13112666E-1,4.5620993E-2,1.1177354E-1,-7.047082E-2,1.0531664E-1,-1.668417E-5,-1.3051422E-1,4.513161E-2,7.7737286E-3],"split_indices":[2,2,1,2,1,0,0,2,1,2,1,0,1,1,2,0,0,1,0,0,0,0,0,0,0,0,0,0,0,0,0],"split_type":[0,0,0,0,0,0,0,0,0,0,0,0,0,0,0,0,0,0,0,0,0,0,0,0,0,0,0,0,0,0,0],"sum_hessian":[3.9486646E2,3.9037695E2,4.48952E0,8.8436264E1,3.0194067E2,2.2434034E0,2.2461164E0,2.8740595E1,5.969567E1,6.2417893E0,2.9569888E2,2.1242369E1,7.4982266E0,5.2453316E1,7.2423534E0,4.245527E0,1.9962626E0,8.54747E1,2.1022418E2,9.492556E0,1.1749812E1,2.7499561E0,4.7482705E0,4.6209835E1,6.2434807E0,4.9947343E0,2.2476194E0,8.222487E1,3.2498326E0,3.72467E1,1.729775E2],"tree_param":{"num_deleted":"0","num_feature":"3","num_nodes":"31","size_leaf_vector":"0"}},{"base_weights":[9.7301416E-2,1.0987877E-1,-8.201637E-1,2.8137493E-1,5.7303473E-2,-1.252138E0,-1.3861926E-1,-2.9446634E-2,4.238315E-1,-5.011779E-1,8.57313E-2,2.073821E-1,-6.4619017E-1,4.5541465E-1,-6.306511E-1,-4.752106E-2,-1.2038406E0,-1.70437E-2,1.8303806E-1,-3.5546307E-2,7.1495056E-1,1.289927E-1,-1.0405089E0,6.758971E-2,5.3587455E-1,-8.459507E-1,2.2442171E-1,7.3749197E-1,-6.21439E-2,-5.119659E-1,2.1102159E-1],"categories":[],"categories_nodes":[],"categories_segments":[],"categories_sizes":[],"default_left":[true,true,true,true,true,false,false,true,true,true,true,true,true,true,false,true,false,true,true,false,false,false,false,false,false,false,false,false,false,false,false],"id":2,"left_children":[1,3,5,7,9,-1,-1,11,13,15,17,19,21,23,-1,25,-1,27,29,-1,-1,-1,-1,-1,-1,-1,-1,-1,-1,-1,-1],"loss_changes":[4.6553755E0,3.5107465E0,1.436373E0,4.065047E0,4.8159647E0,0E0,0E0,4.471975E0,2.3795252E0,4.631151E0,2.8725893E0,2.7647262E0,2.727277E0,1.8853045E0,0E0,2.3564718E0,0E0,4.8255544E0,2.976121E0,0E0,0E0,0E0,0E0,0E0,0E0,0E0,0E0,0E0,0E0,0E0,0E0],"parents":[2147483647,0,0,1,1,2,2,3,3,4,4,7,7,8,8,9,9,10,10,11,11,12,12,13,13,15,15,17,17,18,18],"right_children":[2,4,6,8,10,-1,-1,12,14,16,18,20,22,24,-1,26,-1,28,30,-1,-1,-1,-1,-1,-1,-1,-1,-1,-1,-1,-1],"split_conditions":[2.6700506E0,-6.1058974E-1,2.701668E0,-7.663686E-1,-6.0354006E-1,-1.252138E-1,-1.3861926E-2,-7.735486E-1,-6.070423E-1,-1.1182949E-1,-1.8894024E-2,-7.82693E-1,-7.7858806E-1,-1.14627E0,-6.306511E-2,-6.260073E-1,-1.2038406E-1,-5.872802E-1,-5.779544E-1,-3.5546308E-3,7.1495056E-2,1.2899271E-2,-1.0405089E-1,6.7589707E-3,5.3587455E-2,-8.459508E-2,2.2442171E-2,7.37492E-2,-6.21439E-3,-5.1196586E-2,2.1102158E-2],"split_indices":[2,2,1,2,1,0,0,2,1,0,0,1,1,0,0,1,0,1,1,0,0,0,0,0,0,0,0,0,0,0,0],"split_type":[0,0,0,0,0,0,0,0,0,0,0,0,0,0,0,0,0,0,0,0,0,0,0,0,0,0,0,0,0,0,0],"sum_hessian":[3.9462732E2,3.9015894E2,4.468378E0,9.0524345E1,2.996346E2,2.2225084E0,2.2458699E0,2.8699368E1,6.1824978E1,1.3707758E1,2.8592685E2,2.1216143E1,7.483225E0,6.057868E1,1.2462981E0,8.978585E0,4.7291727E0,1.3945738E2,1.4646947E2,1.4977633E1,6.238509E0,2.749976E0,4.7332487E0,1.0724678E1,4.9854E1,1.7448632E0,7.233722E0,6.9996405E0,1.3245773E2,4.999743E0,1.4146973E2],"tree_param":{"num_deleted":"0","num_feature":"3","num_nodes":"31","size_leaf_vector":"0"}},{"base_weights":[8.6862795E-2,9.9952735E-2,-6.89631E-1,2.463863E-1,4.8154663E-2,-1.1452183E0,-3.0027705E-1,4.840923E-1,1.4998151E-1,-1.634886E-1,1.7877218E-1,9.685593E-2,-7.3357725E-1,6.516701E-2,8.714863E-1,-1.3213088E-1,4.2246664E-1,-1.2584596E0,-1.343853E-1,9.12555E-1,1.5471147E-1,-1.3040163E-1,2.7980253E-1,1.9363005E-1,-7.484456E-1,4.0562114E-1,1.2291577E0,5.3494525E-1,-3.3455658E-1,6.61533E-1,-3.0241884E-2,6.298786E-2,-2.2493349E-1,4.1754913E-1,1.2532319E0,-6.0898155E-1,1.7613116E-1],"categories":[],"categories_nodes":[],"categories_segments":[],"categories_sizes":[],"default_left":[true,true,true,true,true,false,true,true,true,true,true,true,false,true,true,true,true,false,true,true,true,false,false,false,false,false,false,false,false,false,false,false,false,false,false,false,false],"id":3,"left_children":[1,3,5,7,9,-1,11,13,15,17,19,21,-1,23,25,27,29,-1,31,33,35,-1,-1,-1,-1,-1,-1,-1,-1,-1,-1,-1,-1,-1,-1,-1,-1],"loss_changes":[4.0864573E0,2.9430983E0,8.409271E-1,2.2546258E0,8.019156E0,0E0,9.2401254E-1,4.6258807E0,5.721321E0,3.362534E0,3.0226936E0,1.8074396E-1,0E0,1.7068135E0,1.9858799E0,5.171499E0,4.1032553E0,0E0,1.9635159E0,4.0174484E-1,2.9652934E0,0E0,0E0,0E0,0E0,0E0,0E0,0E0,0E0,0E0,0E0,0E0,0E0,0E0,0E0,0E0,0E0],"parents":[2147483647,0,0,1,1,2,2,3,3,4,4,6,6,7,7,8,8,9,9,10,10,11,11,13,13,14,14,15,15,16,16,18,18,19,19,20,20],"right_children":[2,4,6,8,10,-1,12,14,16,18,20,22,-1,24,26,28,30,-1,32,34,36,-1,-1,-1,-1,-1,-1,-1,-1,-1,-1,-1,-1,-1,-1,-1,-1],"split_conditions":[2.581915E0,-6.5325105E-1,2.6271024E0,-6.26203E-1,3.4529172E-2,-1.14521824E-1,2.823332E0,-1.14627E0,-4.886321E-1,-7.9622924E-1,6.028307E-2,5.1440704E-1,-7.335772E-2,-1.259647E0,-7.507541E-1,-1.536638E0,1.2370346E0,-1.2584595E-1,-5.6884265E-1,5.188641E-2,7.700543E-2,-1.3040163E-2,2.7980253E-2,1.9363007E-2,-7.484456E-2,4.0562116E-2,1.2291577E-1,5.3494524E-2,-3.345566E-2,6.61533E-2,-3.0241886E-3,6.2987856E-3,-2.249335E-2,4.1754913E-2,1.2532319E-1,-6.0898155E-2,1.7613117E-2],"split_indices":[1,0,1,1,0,0,2,0,2,1,0,0,0,0,1,0,1,0,2,0,0,0,0,0,0,0,0,0,0,0,0,0,0,0,0,0,0],"split_type":[0,0,0,0,0,0,0,0,0,0,0,0,0,0,0,0,0,0,0,0,0,0,0,0,0,0,0,0,0,0,0,0,0,0,0,0,0],"sum_hessian":[3.9426035E2,3.8858102E2,5.6793246E0,1.0055488E2,2.8802615E2,1.7224905E0,3.9568343E0,2.7853888E1,7.270099E1,1.0982383E2,1.7820232E2,2.4697247E0,1.4871095E0,1.3943595E1,1.3910292E1,3.597256E1,3.6728428E1,1.7497768E0,1.0807405E2,4.485332E0,1.7371698E2,1.229565E0,1.2401596E0,1.2700326E1,1.2432698E0,6.9682465E0,6.942045E0,7.9922223E0,2.798034E1,2.3733803E1,1.2994626E1,3.408386E1,7.39902E1,2.735817E0,1.7495152E0,3.9910226E0,1.6972595E2],"tree_param":{"num_deleted":"0","num_feature":"3","num_nodes":"37","size_leaf_vector":"0"}},{"base_weights":[7.826141E-2,8.9376375E-2,-7.3904777E-1,2.3539434E-1,4.478602E-2,-1.1595207E0,-1.00204125E-1,1.4004968E-2,3.9233238E-1,-4.67984E-1,7.083227E-2,9.277262E-2,-8.1121844E-1,4.2746314E-1,-5.978201E-1,4.678018E-1,-7.485868E-1,6.10946E-2,9.736379E-1,4.318884E-1,-7.9834566E-2,-1.075421E0,-1.8400505E-1,1.0281953E0,3.5993513E-1,7.6983505E-1,-2.1322662E-2,-4.0409185E-2,-9.610691E-1,5.428092E-1,4.478167E-2],"categories":[],"categories_nodes":[],"categories_segments":[],"categories_sizes":[],"default_left":[true,true,true,true,true,false,false,true,true,true,true,true,true,true,false,true,true,true,false,false,false,false,false,false,false,false,false,false,false,false,false],"id":4,"left_children":[1,3,5,7,9,-1,-1,11,13,15,17,19,21,23,-1,25,27,29,-1,-1,-1,-1,-1,-1,-1,-1,-1,-1,-1,-1,-1],"loss_changes":[3.6537125E0,2.5321326E0,1.3361185E0,3.160493E0,4.0451856E0,0E0,0E0,2.5996604E0,2.1090832E0,4.1977377E0,2.461358E0,2.1621745E0,3.7988067E-1,1.7411098E0,0E0,6.066867E-1,1.7152643E0,2.2133281E0,0E0,0E0,0E0,0E0,0E0,0E0,0E0,0E0,0E0,0E0,0E0,0E0,0E0],"parents":[2147483647,0,0,1,1,2,2,3,3,4,4,7,7,8,8,9,9,10,10,11,11,12,12,13,13,15,15,16,16,17,17],"right_children":[2,4,6,8,10,-1,-1,12,14,16,18,20,22,24,-1,26,28,30,-1,-1,-1,-1,-1,-1,-1,-1,-1,-1,-1,-1,-1],"split_conditions":[2.6700506E0,-6.1058974E-1,2.701668E0,-7.546352E-1,-6.0354006E-1,-1.15952075E-1,-1.00204125E-2,-7.5538397E-1,-6.070423E-1,-5.0279325E-1,2.6307678E0,-7.088697E-1,-7.493433E-1,-7.4475986E-1,-5.978201E-2,-8.771965E-1,-6.2499166E-1,-5.875243E-1,9.736379E-2,4.318884E-2,-7.983456E-3,-1.075421E-1,-1.8400505E-2,1.02819525E-1,3.5993513E-2,7.6983504E-2,-2.1322663E-3,-4.040919E-3,-9.610691E-2,5.4280918E-2,4.4781673E-3],"split_indices":[2,2,1,2,1,0,0,1,1,0,2,0,1,2,0,0,1,1,0,0,0,0,0,0,0,0,0,0,0,0,0],"split_type":[0,0,0,0,0,0,0,0,0,0,0,0,0,0,0,0,0,0,0,0,0,0,0,0,0,0,0,0,0,0,0],"sum_hessian":[3.9392697E2,3.8952032E2,4.4066195E0,9.012222E1,2.993981E2,2.1659849E0,2.2406347E0,3.7836403E1,5.228582E1,1.3652629E1,2.8574548E2,3.5349834E1,2.4865663E0,5.104309E1,1.2427309E0,2.9955614E0,1.0657068E1,2.837526E2,1.9928844E0,1.1417026E1,2.393281E1,1.2467806E0,1.2397857E0,3.7203634E0,4.7322727E1,1.4971626E0,1.4983988E0,2.7342672E0,7.9228005E0,8.237176E0,2.755154E2],"tree_param":{"num_deleted":"0","num_feature":"3","num_nodes":"31","size_leaf_vector":"0"}},{"base_weights":[7.049682E-2,8.21345E-2,-6.263294E-1,2.0844123E-1,3.75572E-2,-1.0713563E0,-2.5673568E-1,1.7923865E-1,1.0345769E0,-1.6512468E-1,1.4625917E-1,1.1992568E-1,-6.7833185E-1,2.2283411E-1,-8.450524E-1,-1.1779611E0,-1.3558012E-1,1.330536E-1,9.2322654E-1,-9.5833875E-2,2.8035703E-1,1.12235904E-1,4.713379E-1,-1.216931E0,-1.9964856E-1,1.08882226E-1,-2.4653699E-1,1.6616945E-1,-6.034572E-1],"categories":[],"categories_nodes":[],"categories_segments":[],"categories_sizes":[],"default_left":[true,true,true,true,true,false,true,true,false,true,true,true,false,true,true,false,true,true,false,false,false,false,false,false,false,false,false,false,false],"id":5,"left_children":[1,3,5,7,9,-1,11,13,-1,15,17,19,-1,21,23,-1,25,27,-1,-1,-1,-1,-1,-1,-1,-1,-1,-1,-1],"loss_changes":[3.2504253E0,2.1817293E0,8.0982494E-1,2.256639E0,6.383793E0,0E0,8.6239755E-1,4.608127E0,0E0,2.8697019E0,1.810391E0,1.4619926E-1,0E0,2.5781202E0,7.769389E-1,0E0,2.725708E0,4.6475277E0,0E0,0E0,0E0,0E0,0E0,0E0,0E0,0E0,0E0,0E0,0E0],"parents":[2147483647,0,0,1,1,2,2,3,3,4,4,6,6,7,7,9,9,10,10,11,11,13,13,14,14,16,16,17,17],"right_children":[2,4,6,8,10,-1,12,14,-1,16,18,20,-1,22,24,-1,26,28,-1,-1,-1,-1,-1,-1,-1,-1,-1,-1,-1],"split_conditions":[2.581915E0,-6.5325105E-1,2.6271024E0,2.2724645E0,-4.1886322E-2,-1.0713563E-1,2.823332E0,1.9144313E0,1.0345769E-1,-7.9622924E-1,2.610915E0,5.1440704E-1,-6.7833185E-2,-4.6616405E-1,2.0719619E0,-1.17796116E-1,-5.6884265E-1,2.344513E0,9.2322655E-2,-9.5833875E-3,2.8035704E-2,1.1223591E-2,4.7133792E-2,-1.216931E-1,-1.9964857E-2,1.0888223E-2,-2.46537E-2,1.6616946E-2,-6.034572E-2],"split_indices":[1,0,1,1,0,0,2,1,0,1,2,0,0,2,1,0,2,2,0,0,0,0,0,0,0,0,0,0,0],"split_type":[0,0,0,0,0,0,0,0,0,0,0,0,0,0,0,0,0,0,0,0,0,0,0,0,0,0,0,0,0],"sum_hessian":[3.9347638E2,3.8788052E2,5.595853E0,1.002247E2,2.8765582E2,1.6773815E0,3.9184713E0,9.797829E1,2.2464154E0,1.0023748E2,1.8741833E2,2.4474344E0,1.4710369E0,9.472893E1,3.249364E0,1.7393402E0,9.849814E1,1.8543782E2,1.9805112E0,1.2154537E0,1.2319806E0,6.655835E1,2.8170574E1,1.4997064E0,1.7496574E0,3.0755564E1,6.774258E1,1.7819978E2,7.23804E0],"tree_param":{"num_deleted":"0","num_feature":"3","num_nodes":"29","size_leaf_vector":"0"}},{"base_weights":[6.294736E-2,7.28417E-2,-6.735733E-1,2.0439938E-1,3.4078937E-2,-1.0894378E0,-6.749642E-2,-5.203725E-2,3.272889E-1,-6.5637577E-1,5.0698202E-2,1.6566773E-1,-6.1502516E-1,-2.4663022E-1,3.8371852E-1,-9.472486E-1,7.115021E-2,4.2186573E-2,8.7792057E-1,3.5060704E-2,9.853114E-1,1.0668963E-1,-9.815085E-1,4.753232E-1,-6.5497327E-1,4.7557285E-1,-9.038211E-4,7.4819976E-1,3.2402914E-2],"categories":[],"categories_nodes":[],"categories_segments":[],"categories_sizes":[],"default_left":[true,true,true,true,true,false,false,true,true,true,true,true,true,true,true,false,false,true,false,false,false,false,false,false,false,false,false,false,false],"id":6,"left_children":[1,3,5,7,9,-1,-1,11,13,15,17,19,21,23,25,-1,-1,27,-1,-1,-1,-1,-1,-1,-1,-1,-1,-1,-1],"loss_changes":[2.921278E0,1.9809012E0,1.2678978E0,2.8064818E0,3.5020854E0,0E0,0E0,3.722381E0,2.0370574E0,1.5861688E0,2.0479453E0,2.330186E0,2.3395977E0,2.073656E0,1.9435072E0,0E0,0E0,2.0075946E0,0E0,0E0,0E0,0E0,0E0,0E0,0E0,0E0,0E0,0E0,0E0],"parents":[2147483647,0,0,1,1,2,2,3,3,4,4,7,7,8,8,9,9,10,10,11,11,12,12,13,13,14,14,17,17],"right_children":[2,4,6,8,10,-1,-1,12,14,16,18,20,22,24,26,-1,-1,28,-1,-1,-1,-1,-1,-1,-1,-1,-1,-1,-1],"split_conditions":[2.6700506E0,-6.114146E-1,2.701668E0,-7.663686E-1,-6.2215614E-1,-1.0894378E-1,-6.749642E-3,-7.735486E-1,-1.8479619E0,-6.065918E-1,2.6307678E0,1.464519E-1,-7.7858806E-1,-7.414793E-1,1.1840335E0,-9.472486E-2,7.1150213E-3,-6.0535794E-1,8.779206E-2,3.5060705E-3,9.853114E-2,1.0668963E-2,-9.815085E-2,4.753232E-2,-6.549733E-2,4.7557287E-2,-9.038211E-5,7.4819975E-2,3.2402915E-3],"split_indices":[2,2,1,2,1,0,0,2,0,2,2,0,1,2,0,0,0,2,0,0,0,0,0,0,0,0,0,0,0],"split_type":[0,0,0,0,0,0,0,0,0,0,0,0,0,0,0,0,0,0,0,0,0,0,0,0,0,0,0,0,0],"sum_hessian":[3.9313522E2,3.8881305E2,4.32217E0,8.751639E1,3.0129666E2,2.090341E0,2.2318285E0,2.8539291E1,5.89771E1,6.176966E0,2.951197E2,2.1089724E1,7.449569E0,4.977965E0,5.3999134E1,4.196962E0,1.9800043E0,2.9315433E2,1.9653867E0,1.9090502E1,1.9992213E0,2.7476032E0,4.701966E0,1.7391342E0,3.2388308E0,4.3398396E1,1.060074E1,2.975293E0,2.9017902E2],"tree_param":{"num_deleted":"0","num_feature":"3","num_nodes":"29","size_leaf_vector":"0"}},{"base_weights":[5.673175E-2,6.70928E-2,-5.7186097E-1,5.6481235E-2,5.5360013E-1,-1.009566E0,-2.1913266E-1,9.293646E-2,-1.5482284E-1,7.9970616E-1,-2.2689717E-1,3.2219332E-1,-4.891706E-1,5.4776277E-2,5.559466E-1,3.746741E-2,-1.0004572E0,1.1541706E0,1.5899031E-1,3.023773E-1,-1.0057988E0,6.873204E-2,-6.7704725E-1,1.5317768E-1,9.5349336E-1,-7.001682E-2,9.5391625E-1,-2.1911256E-1,-1.1316417E0,5.32934E-1,-2.848123E-1],"categories":[],"categories_nodes":[],"categories_segments":[],"categories_sizes":[],"default_left":[true,true,true,true,true,false,true,true,true,true,false,false,true,true,true,true,true,false,true,false,false,false,false,false,false,false,false,false,false,false,false],"id":7,"left_children":[1,3,5,7,9,-1,11,13,15,17,-1,-1,19,21,23,25,27,-1,29,-1,-1,-1,-1,-1,-1,-1,-1,-1,-1,-1,-1],"loss_changes":[2.6024618E0,1.9728909E0,7.806196E-1,2.9495463E0,1.7513814E0,0E0,8.6957854E-1,5.722315E0,9.21509E0,1.2779102E0,0E0,0E0,1.7953731E0,3.1300035E0,3.8060322E0,4.691333E0,8.2752514E-1,0E0,7.2462255E-1,0E0,0E0,0E0,0E0,0E0,0E0,0E0,0E0,0E0,0E0,0E0,0E0],"parents":[2147483647,0,0,1,1,2,2,3,3,4,4,6,6,7,7,8,8,9,9,12,12,13,13,14,14,15,15,16,16,18,18],"right_children":[2,4,6,8,10,-1,12,14,16,18,-1,-1,20,22,24,26,28,-1,30,-1,-1,-1,-1,-1,-1,-1,-1,-1,-1,-1,-1],"split_conditions":[2.581915E0,2.3949862E0,2.6271024E0,1.17485E0,5.41016E-1,-1.009566E-1,3.657961E-1,1.294158E-1,1.0677335E0,2.494041E0,-2.2689717E-2,3.221933E-2,2.7344608E0,5.7923205E-2,-2.2444718E-1,8.200497E-1,1.341318E0,1.1541706E-1,2.442452E-1,3.0237732E-2,-1.0057988E-1,6.873204E-3,-6.770473E-2,1.5317768E-2,9.5349334E-2,-7.0016827E-3,9.539162E-2,-2.1911256E-2,-1.1316418E-1,5.3293403E-2,-2.848123E-2],"split_indices":[1,1,1,1,0,0,0,2,0,1,0,0,2,1,0,0,1,0,0,0,0,0,0,0,0,0,0,0,0,0,0],"split_type":[0,0,0,0,0,0,0,0,0,0,0,0,0,0,0,0,0,0,0,0,0,0,0,0,0,0,0,0,0,0,0],"sum_hessian":[3.9269604E2,3.87207E2,5.489038E0,3.800339E2,7.1730986E0,1.6184813E0,3.8705568E0,3.245936E2,5.5440327E1,5.4347916E0,1.7383068E0,1.2239168E0,2.64664E0,3.009115E2,2.36821E1,4.5947857E1,9.49247E0,2.98308E0,2.451712E0,1.208996E0,1.437644E0,2.9616965E2,4.741829E0,1.24519205E1,1.1230181E1,4.195127E1,3.9965873E0,1.7485069E0,7.7439632E0,1.2215828E0,1.2301291E0],"tree_param":{"num_deleted":"0","num_feature":"3","num_nodes":"31","size_leaf_vector":"0"}},{"base_weights":[5.1054224E-2,5.9809975E-2,-6.1275804E-1,1.7657876E-1,2.0071378E-2,-1.0179878E0,-4.496855E-2,1.2172416E-1,6.5646225E-1,-1.4808469E-1,1.2584412E-1,8.817687E-2,1.1595712E0,1.0501019E0,2.2090802E-1,-1.1180421E0,-1.2305184E-1,8.407215E-1,1.0284093E-1,1.24291375E-1,-9.7800595E-1,1.3267868E0,1.1707883E-1,-6.8987936E-1,6.074921E-1,6.6833395E-1,-1.3811314E-1,3.835182E-1,1.1560683E0,-5.9461296E-1,1.2251795E-1],"categories":[],"categories_nodes":[],"categories_segments":[],"categories_sizes":[],"default_left":[true,true,true,true,true,false,false,true,true,true,true,true,false,true,true,false,true,true,true,false,false,false,false,false,false,false,false,false,false,false,false],"id":8,"left_children":[1,3,5,7,9,-1,-1,11,13,15,17,19,-1,21,23,-1,25,27,29,-1,-1,-1,-1,-1,-1,-1,-1,-1,-1,-1,-1],"loss_changes":[2.3233175E0,1.8025095E0,1.1531315E0,2.5181813E0,5.203694E0,0E0,0E0,3.0243258E0,1.4648695E0,2.6067462E0,2.8652365E0,3.5126946E0,0E0,1.1179256E0,2.5192592E0,0E0,1.4189771E0,3.4330654E-1,2.4750478E0,0E0,0E0,0E0,0E0,0E0,0E0,0E0,0E0,0E0,0E0,0E0,0E0],"parents":[2147483647,0,0,1,1,2,2,3,3,4,4,7,7,8,8,9,9,10,10,11,11,13,13,14,14,16,16,17,17,18,18],"right_children":[2,4,6,8,10,-1,-1,12,14,16,18,20,-1,22,24,-1,26,28,30,-1,-1,-1,-1,-1,-1,-1,-1,-1,-1,-1,-1],"split_conditions":[2.6700506E0,-6.724639E-1,2.701668E0,-7.4318427E-1,3.4529172E-2,-1.0179879E-1,-4.496855E-3,2.2724645E0,-4.9373186E-1,-7.9622924E-1,6.028307E-2,1.9521283E0,1.1595712E-1,-7.07739E-1,-4.604479E-1,-1.1180421E-1,-7.944192E-1,5.188641E-2,7.700543E-2,1.2429138E-2,-9.78006E-2,1.3267867E-1,1.1707883E-2,-6.8987936E-2,6.074921E-2,6.68334E-2,-1.38113145E-2,3.835182E-2,1.1560684E-1,-5.9461296E-2,1.2251795E-2],"split_indices":[2,0,1,0,0,0,0,1,2,1,0,2,0,0,2,0,1,0,0,0,0,0,0,0,0,0,0,0,0,0,0],"split_type":[0,0,0,0,0,0,0,0,0,0,0,0,0,0,0,0,0,0,0,0,0,0,0,0,0,0,0,0,0,0,0],"sum_hessian":[3.924273E2,3.8821658E2,4.2107177E0,9.7697266E1,2.9051935E2,1.9944136E0,2.2163038E0,8.8800316E1,8.896946E0,1.12024414E2,1.7849492E2,8.707081E1,1.729509E0,3.9321992E0,4.964747E0,1.7198973E0,1.1030452E2,4.456323E0,1.7403859E2,8.507259E1,1.9982157E0,2.7073216E0,1.2248776E0,1.245593E0,3.7191541E0,1.2499971E0,1.0905452E2,2.7236454E0,1.7326778E0,3.9736469E0,1.7006494E2],"tree_param":{"num_deleted":"0","num_feature":"3","num_nodes":"31","size_leaf_vector":"0"}},{"base_weights":[4.6278924E-2,5.5454988E-2,-5.203179E-1,4.9297195E-2,8.467722E-1,-9.5145994E-1,-1.834903E-1,7.879779E-2,-1.07336394E-1,1.6437018E-1,-5.94675E-1,4.4145476E-2,5.007266E-1,4.9846306E-2,-8.5542506E-1,-5.975008E-2,3.0929917E-1,5.703982E-2,-6.293192E-1,1.3684818E-1,8.6175257E-1,-3.8487974E-1,1.7612638E-1,-1.1235855E0,-4.5567104E-1],"categories":[],"categories_nodes":[],"categories_segments":[],"categories_sizes":[],"default_left":[true,true,true,true,false,false,true,true,true,true,false,true,true,true,true,false,false,false,false,false,false,false,false,false,false],"id":9,"left_children":[1,3,5,7,-1,-1,9,11,13,15,-1,17,19,21,23,-1,-1,-1,-1,-1,-1,-1,-1,-1,-1],"loss_changes":[2.0721543E0,1.8471779E0,7.4897027E-1,1.790772E0,0E0,0E0,7.8564143E-1,4.73201E0,7.2807994E0,1.285508E-1,0E0,2.6547768E0,3.1113267E0,2.9121742E0,6.396513E-1,0E0,0E0,0E0,0E0,0E0,0E0,0E0,0E0,0E0,0E0],"parents":[2147483647,0,0,1,1,2,2,3,3,6,6,7,7,8,8,9,9,11,11,12,12,13,13,14,14],"right_children":[2,4,6,8,-1,-1,10,12,14,16,-1,18,20,22,24,-1,-1,-1,-1,-1,-1,-1,-1,-1,-1],"split_conditions":[2.581915E0,2.610915E0,2.6271024E0,1.17485E0,8.467722E-2,-9.514599E-2,2.823332E0,1.294158E-1,1.0677335E0,2.6870368E0,-5.9467502E-2,5.7923205E-2,-2.2444718E-1,1.5745797E0,1.7220328E0,-5.975008E-3,3.0929917E-2,5.703982E-3,-6.293192E-2,1.36848185E-2,8.6175255E-2,-3.8487975E-2,1.7612638E-2,-1.1235855E-1,-4.5567106E-2],"split_indices":[1,2,1,1,0,0,2,2,0,1,0,1,0,1,2,0,0,0,0,0,0,0,0,0,0],"split_type":[0,0,0,0,0,0,0,0,0,0,0,0,0,0,0,0,0,0,0,0,0,0,0,0,0],"sum_hessian":[3.92008E2,3.8664835E2,5.3596654E0,3.847169E2,1.9314553E0,1.5503881E0,3.809277E0,3.241609E2,6.0555992E1,2.3886998E0,1.4205774E0,3.0057944E2,2.3581457E1,5.081293E1,9.743059E0,1.1688704E0,1.2198293E0,2.958307E2,4.748752E0,1.2431147E1,1.11503105E1,1.0976816E1,3.9836117E1,4.7476068E0,4.995452E0],"tree_param":{"num_deleted":"0","num_feature":"3","num_nodes":"25","size_leaf_vector":"0"}}]},"name":"gbtree"},"learner_model_param":{"base_score":"5E-1","num_class":"0","num_feature":"3"},"objective":{"name":"reg:logistic","reg_loss_param":{"scale_pos_weight":"1"}}},"version":[1,5,2]}