{"learner":{"attributes":{"best_iteration":"9","best_ntree_limit":"10","scikit_learn":"{\"use_label_encoder\": true, \"n_estimators\": 10, \"objective\": \"reg:logistic\", \"max_depth\": 5, \"learning_rate\": 0.1, \"verbosity\": null, \"booster\": null, \"tree_method\": null, \"gamma\": null, \"min_child_weight\": null, \"max_delta_step\": null, \"subsample\": null, \"colsample_bytree\": null, \"colsample_bylevel\": null, \"colsample_bynode\": null, \"reg_alpha\": null, \"reg_lambda\": null, \"scale_pos_weight\": null, \"base_score\": null, \"missing\": NaN, \"num_parallel_tree\": null, \"random_state\": 1, \"n_jobs\": null, \"monotone_constraints\": null, \"interaction_constraints\": null, \"importance_type\": null, \"gpu_id\": null, \"validate_parameters\": null, \"predictor\": null, \"enable_categorical\": false, \"classes_\": [-1.0, 1.0], \"n_classes_\": 2, \"_le\": {\"classes_\": [-1.0, 1.0]}, \"_estimator_type\": \"classifier\"}"},"feature_names":[],"feature_types":[],"gradient_booster":{"model":{"gbtree_model_param":{"num_trees":"10","size_leaf_vector":"0"},"tree_info":[0,0,0,0,0,0,0,0,0,0],"trees":[{"base_weights":[1.21212125E-1,1.3691619E-1,-8.8E-1,3.6532506E-1,7.717042E-2,-1.25E0,-1.5384616E-1,1.2631579E-1,6.8613136E-1,-8.866995E-2,1.567696E-1,1E0,-1.1111112E0,2.122905E-1,-9.3333334E-1,5.263158E-1,1.2592592E0,-3.562341E-2,-1.2941177E0,1.1578947E0,1.3301088E-1,1E-1,9.5652175E-1,7.169811E-1,-1.3333334E0,1.6E0,1.8181819E-1,-4.7619048E-1,1.690141E-2,4E-1,1.3846154E0,-7.692308E-1,1.4669926E-1],"categories":[],"categories_nodes":[],"categories_segments":[],"categories_sizes":[],"default_left":[true,true,true,true,true,false,true,true,true,true,true,false,false,true,false,true,true,true,false,true,true,false,false,false,false,false,false,false,false,false,false,false,false],"id":0,"left_children":[1,3,5,7,9,-1,11,13,15,17,19,-1,-1,21,-1,23,25,27,-1,29,31,-1,-1,-1,-1,-1,-1,-1,-1,-1,-1,-1,-1],"loss_changes":[6.346834E0,5.304164E0,1.4869227E0,6.1048927E0,4.119336E0,0E0,4.700855E0,4.525532E0,2.474352E0,6.4442997E0,4.8528237E0,0E0,0E0,3.6441097E0,0E0,1.1061237E1,2.1872053E0,2.2816224E0,0E0,2.6234818E-1,2.6662555E0,0E0,0E0,0E0,0E0,0E0,0E0,0E0,0E0,0E0,0E0,0E0,0E0],"parents":[2147483647,0,0,1,1,2,2,3,3,4,4,6,6,7,7,8,8,9,9,10,10,13,13,15,15,16,16,17,17,19,19,20,20],"right_children":[2,4,6,8,10,-1,12,14,16,18,20,-1,-1,22,-1,24,26,28,-1,30,32,-1,-1,-1,-1,-1,-1,-1,-1,-1,-1,-1,-1],"split_conditions":[2.6031523E0,-6.268433E-1,2.7279706E0,-7.244837E-1,-4.8391593E-1,-1.25E-1,2.7628715E0,-7.35249E-1,-6.311975E-1,-4.8933694E-1,-4.7763222E-1,1E-1,-1.1111112E-1,-7.527671E-1,-9.3333334E-2,-6.330792E-1,-6.224303E-1,-6.2221575E-1,-1.2941177E-1,-4.8012766E-1,-4.7295672E-1,1.0000001E-2,9.565218E-2,7.1698114E-2,-1.3333334E-1,1.6000001E-1,1.818182E-2,-4.761905E-2,1.6901409E-3,4.0000003E-2,1.3846155E-1,-7.692308E-2,1.4669927E-2],"split_indices":[0,0,0,2,1,0,0,1,0,1,0,0,0,2,0,0,2,1,0,1,2,0,0,0,0,0,0,0,0,0,0,0,0],"split_type":[0,0,0,0,0,0,0,0,0,0,0,0,0,0,0,0,0,0,0,0,0,0,0,0,0,0,0,0,0,0,0,0,0],"sum_hessian":[3.95E2,3.8975E2,5.25E0,7.975E1,3.1E2,3E0,2.25E0,4.65E1,3.325E1,1.005E2,2.095E2,1E0,1.25E0,4.375E1,2.75E0,2.75E1,5.75E0,9.725E1,3.25E0,3.75E0,2.0575E2,3.9E1,4.75E0,2.55E1,2E0,4E0,1.75E0,9.5E0,8.775E1,1.5E0,2.25E0,2.25E0,2.035E2],"tree_param":{"num_deleted":"0","num_feature":"3","num_nodes":"33","size_leaf_vector":"0"}},{"base_weights":[1.0896688E-1,1.2344838E-1,-8.162205E-1,3.3076045E-1,6.927254E-2,-1.1597608E0,-1.4217627E-1,2.51549E-1,1.1643546E0,-8.2594335E-2,1.4163613E-1,3.0959737E-1,-1.2482635E0,1.4798168E0,1.702572E-1,-3.2531235E-2,-1.3761103E0,9.9179214E-1,1.1941679E-1,2.2205609E-1,1.1714003E0,-8.7911075E-1,-8.0763735E-3,3.3517483E-1,1.2931875E0,1.0607355E-1,9.902558E-1],"categories":[],"categories_nodes":[],"categories_segments":[],"categories_sizes":[],"default_left":[true,true,true,true,true,false,false,true,true,true,true,true,false,false,false,true,false,true,true,false,false,false,false,false,false,false,false],"id":1,"left_children":[1,3,5,7,9,-1,-1,11,13,15,17,19,-1,-1,-1,21,-1,23,25,-1,-1,-1,-1,-1,-1,-1,-1],"loss_changes":[5.4044313E0,4.3642635E0,1.2781916E0,5.033428E0,3.4289837E0,0E0,0E0,6.910911E0,1.8568125E0,6.4946365E0,3.8668094E0,5.2434335E0,0E0,0E0,0E0,2.0268557E0,0E0,6.028795E-1,2.2971911E0,0E0,0E0,0E0,0E0,0E0,0E0,0E0,0E0],"parents":[2147483647,0,0,1,1,2,2,3,3,4,4,7,7,8,8,9,9,10,10,11,11,15,15,17,17,18,18],"right_children":[2,4,6,8,10,-1,-1,12,14,16,18,20,-1,-1,-1,22,-1,24,26,-1,-1,-1,-1,-1,-1,-1,-1],"split_conditions":[2.6031523E0,-6.268433E-1,2.7279706E0,-6.311975E-1,-4.855041E-1,-1.1597609E-1,-1.4217627E-2,-6.330792E-1,-6.224303E-1,-4.8933694E-1,-4.7763222E-1,-6.409644E-1,-1.2482635E-1,1.4798169E-1,1.702572E-2,-6.2910515E-1,-1.3761103E-1,-4.8012766E-1,2.5827641E0,2.220561E-2,1.1714003E-1,-8.791108E-2,-8.0763735E-4,3.3517484E-2,1.2931876E-1,1.0607355E-2,9.902558E-2],"split_indices":[0,0,0,0,1,0,0,0,2,1,0,2,0,0,0,1,0,1,2,0,0,0,0,0,0,0,0],"split_type":[0,0,0,0,0,0,0,0,0,0,0,0,0,0,0,0,0,0,0,0,0,0,0,0,0,0,0],"sum_hessian":[3.9485226E2,3.896203E2,5.2319655E0,7.9664955E1,3.0995535E2,2.9883115E0,2.243654E0,7.394059E1,5.7243643E0,9.998307E1,2.0997229E2,7.1949455E1,1.9911375E0,3.9745088E0,1.7498554E0,9.724455E1,2.738518E0,4.2365627E0,2.0573572E2,6.645651E1,5.4929376E0,1.7490082E0,9.5495544E1,1.9973125E0,2.2392504E0,2.0373582E2,1.9998924E0],"tree_param":{"num_deleted":"0","num_feature":"3","num_nodes":"27","size_leaf_vector":"0"}},{"base_weights":[9.839383E-2,1.1177007E-1,-7.596327E-1,3.0059242E-1,6.2512256E-2,-1.0818031E0,-1.323584E-1,9.2278056E-2,5.823432E-1,-7.663463E-2,1.2880804E-1,1.71832E-1,-8.8201237E-1,9.597319E-1,3.7372902E-1,-3.0186076E-2,-1.2886521E0,9.2928386E-1,1.0802103E-1,6.861969E-2,8.617398E-1,1.3636907E0,6.957303E-1,-2.3852815E-1,7.504467E-1,-8.253808E-1,-7.2772135E-3,3.1289217E-1,1.2152325E0,1.7845744E-1,-5.099028E-2],"categories":[],"categories_nodes":[],"categories_segments":[],"categories_sizes":[],"default_left":[true,true,true,true,true,false,false,true,true,true,true,true,false,true,true,true,false,true,true,false,false,false,false,false,false,false,false,false,false,false,false],"id":2,"left_children":[1,3,5,7,9,-1,-1,11,13,15,17,19,-1,21,23,25,-1,27,29,-1,-1,-1,-1,-1,-1,-1,-1,-1,-1,-1,-1],"loss_changes":[4.624759E0,3.6118937E0,1.1097946E0,4.671047E0,2.8774612E0,0E0,0E0,3.83089E0,2.3204842E0,5.643608E0,3.4091535E0,3.1254878E0,0E0,2.7520084E-1,5.611566E0,1.7835854E0,0E0,5.375247E-1,2.324278E0,0E0,0E0,0E0,0E0,0E0,0E0,0E0,0E0,0E0,0E0,0E0,0E0],"parents":[2147483647,0,0,1,1,2,2,3,3,4,4,7,7,8,8,9,9,10,10,11,11,13,13,14,14,15,15,17,17,18,18],"right_children":[2,4,6,8,10,-1,-1,12,14,16,18,20,-1,22,24,26,-1,28,30,-1,-1,-1,-1,-1,-1,-1,-1,-1,-1,-1,-1],"split_conditions":[2.6031523E0,-6.268433E-1,2.7279706E0,-7.244837E-1,-4.855041E-1,-1.0818031E-1,-1.323584E-2,-7.35249E-1,-6.796709E-1,-4.8933694E-1,-4.7763222E-1,-7.527671E-1,-8.820124E-2,-7.045161E-1,-6.4296705E-1,-6.2910515E-1,-1.2886521E-1,-4.8012766E-1,1.17485E0,6.8619694E-3,8.617398E-2,1.3636908E-1,6.957304E-2,-2.3852816E-2,7.504467E-2,-8.253808E-2,-7.277214E-4,3.1289216E-2,1.2152325E-1,1.7845744E-2,-5.099028E-3],"split_indices":[0,0,0,2,1,0,0,1,2,1,0,2,0,2,2,1,0,1,1,0,0,0,0,0,0,0,0,0,0,0,0],"split_type":[0,0,0,0,0,0,0,0,0,0,0,0,0,0,0,0,0,0,0,0,0,0,0,0,0,0,0,0,0,0,0],"sum_hessian":[3.945553E2,3.8935516E2,5.200133E0,7.950032E1,3.0985486E2,2.956866E0,2.2432668E0,4.6469955E1,3.303036E1,9.993899E1,2.0991586E2,4.372343E1,2.7465248E0,1.0476887E1,2.2553474E1,9.7237434E1,2.7015572E0,4.2069697E0,2.057089E2,3.8989887E1,4.7335434E0,2.4944968E0,7.98239E0,8.730739E0,1.3822735E1,1.7419884E0,9.5495445E1,1.9968274E0,2.2101424E0,1.4247513E2,6.3233765E1],"tree_param":{"num_deleted":"0","num_feature":"3","num_nodes":"31","size_leaf_vector":"0"}},{"base_weights":[8.888839E-2,1.0124879E-1,-7.0901346E-1,2.7453044E-1,5.6135237E-2,-1.0134642E0,-1.2322603E-1,2.0417623E-1,1.0291011E0,4.0514965E-2,5.9095114E-1,2.5972673E-1,-1.2183676E0,1.335519E0,1.1194462E-1,6.0202353E-2,-4.0327877E-1,1.1852915E0,1.205389E-1,1.8317656E-1,1.0236762E0,4.6915956E-2,1.3199712E0,-1.4815742E0,3.057424E-2,-5.1517254E-1,9.294967E-1],"categories":[],"categories_nodes":[],"categories_segments":[],"categories_sizes":[],"default_left":[true,true,true,true,true,false,false,true,true,true,true,true,false,false,false,true,true,false,true,false,false,false,false,false,false,false,false],"id":3,"left_children":[1,3,5,7,9,-1,-1,11,13,15,17,19,-1,-1,-1,21,23,-1,25,-1,-1,-1,-1,-1,-1,-1,-1],"loss_changes":[3.9690387E0,3.0334344E0,9.724791E-1,4.053143E0,2.5716636E0,0E0,0E0,6.2198763E0,1.7057352E0,2.6712797E0,2.3016858E0,4.065296E0,0E0,0E0,0E0,4.808115E0,6.1264086E0,0E0,3.56125E0,0E0,0E0,0E0,0E0,0E0,0E0,0E0,0E0],"parents":[2147483647,0,0,1,1,2,2,3,3,4,4,7,7,8,8,9,9,10,10,11,11,15,15,16,16,18,18],"right_children":[2,4,6,8,10,-1,-1,12,14,16,18,20,-1,-1,-1,22,24,-1,26,-1,-1,-1,-1,-1,-1,-1,-1],"split_conditions":[2.6031523E0,-6.268433E-1,2.7279706E0,-6.311975E-1,2.3949862E0,-1.01346426E-1,-1.2322604E-2,-6.330792E-1,-6.224303E-1,2.2669632E0,2.4892018E0,-6.409644E-1,-1.2183676E-1,1.335519E-1,1.1194463E-2,2.2245526E0,2.3093863E0,1.18529156E-1,2.5827641E0,1.8317657E-2,1.0236762E-1,4.6915957E-3,1.3199712E-1,-1.4815742E-1,3.057424E-3,-5.1517256E-2,9.294967E-2],"split_indices":[0,0,0,0,1,0,0,0,2,0,0,2,0,0,0,1,1,0,2,0,0,0,0,0,0,0,0],"split_type":[0,0,0,0,0,0,0,0,0,0,0,0,0,0,0,0,0,0,0,0,0,0,0,0,0,0,0],"sum_hessian":[3.941631E2,3.8901E2,5.153098E0,7.930672E1,3.0970328E2,2.9103937E0,2.2427046E0,7.3705215E1,5.6014977E0,3.0195975E2,7.74353E0,7.1721886E1,1.9833277E0,3.8568048E0,1.7446927E0,2.8996097E2,1.1998778E1,2.74972E0,4.9938097E0,6.6316536E1,5.4053535E0,2.8796118E2,1.9997964E0,2.74972E0,9.249059E0,2.9996946E0,1.994115E0],"tree_param":{"num_deleted":"0","num_feature":"3","num_nodes":"27","size_leaf_vector":"0"}},{"base_weights":[8.0562316E-2,9.199076E-2,-6.6332793E-1,2.4985129E-1,5.1024552E-2,-9.527887E-1,-1.14729434E-1,-3.8975045E-2,4.167694E-1,-7.580263E-2,1.1148287E-1,1.3066638E-1,-6.210404E-1,3.289671E-1,9.65788E-1,-3.2666937E-2,-1.216676E0,8.702917E-1,9.1991976E-2,-1.1290576E-1,6.16697E-1,-8.3056545E-1,1.9043735E-1,4.220817E-1,-1.1491313E0,1.260057E0,1.0487428E-1,-4.088687E-1,1.2109751E-2,2.89097E-1,1.1453165E0,-7.391727E-1,1.04756005E-1],"categories":[],"categories_nodes":[],"categories_segments":[],"categories_sizes":[],"default_left":[true,true,true,true,true,false,false,true,true,true,true,true,true,true,true,true,false,true,true,false,false,false,false,false,false,false,false,false,false,false,false,false,false],"id":4,"left_children":[1,3,5,7,9,-1,-1,11,13,15,17,19,21,23,25,27,-1,29,31,-1,-1,-1,-1,-1,-1,-1,-1,-1,-1,-1,-1,-1,-1],"loss_changes":[3.4170976E0,2.5072136E0,8.5852695E-1,3.8745394E0,2.3903441E0,0E0,0E0,3.0657299E0,2.1313238E0,4.9244685E0,3.037115E0,2.9381642E0,1.3475056E0,6.7220364E0,1.51156E0,1.6595731E0,0E0,4.93675E-1,2.269299E0,0E0,0E0,0E0,0E0,0E0,0E0,0E0,0E0,0E0,0E0,0E0,0E0,0E0,0E0],"parents":[2147483647,0,0,1,1,2,2,3,3,4,4,7,7,8,8,9,9,10,10,11,11,12,12,13,13,14,14,15,15,17,17,18,18],"right_children":[2,4,6,8,10,-1,-1,12,14,16,18,20,22,24,26,28,-1,30,32,-1,-1,-1,-1,-1,-1,-1,-1,-1,-1,-1,-1,-1,-1],"split_conditions":[2.6031523E0,-6.268433E-1,2.7279706E0,-7.6816666E-1,-4.855041E-1,-9.5278874E-2,-1.1472943E-2,-7.734127E-1,-6.311975E-1,-4.8933694E-1,-4.7763222E-1,-7.82693E-1,-7.671511E-1,-6.330792E-1,-6.224303E-1,-6.2221575E-1,-1.216676E-1,-4.8012766E-1,-4.7295672E-1,-1.1290576E-2,6.1669704E-2,-8.305655E-2,1.9043734E-2,4.2208172E-2,-1.1491313E-1,1.260057E-1,1.0487429E-2,-4.088687E-2,1.2109751E-3,2.8909702E-2,1.1453165E-1,-7.391727E-2,1.0475601E-2],"split_indices":[0,0,0,2,1,0,0,2,0,1,0,1,0,0,2,1,0,1,2,0,0,0,0,0,0,0,0,0,0,0,0,0,0],"split_type":[0,0,0,0,0,0,0,0,0,0,0,0,0,0,0,0,0,0,0,0,0,0,0,0,0,0,0,0,0,0,0,0,0],"sum_hessian":[3.937628E2,3.8866797E2,5.094796E0,7.903046E1,3.096375E2,2.85279E0,2.242006E0,2.9225931E1,4.9804523E1,9.98733E1,2.0976422E2,2.323087E1,5.995063E0,4.431638E1,5.488145E0,9.722588E1,2.6474152E0,4.1599565E0,2.0560426E2,1.5986835E1,7.2440343E0,4.7460914E0,1.2489715E0,4.2362167E1,1.9542135E0,3.7445817E0,1.743563E0,9.476402E0,8.774948E1,1.9950643E0,2.1648922E0,2.2489223E0,2.0335535E2],"tree_param":{"num_deleted":"0","num_feature":"3","num_nodes":"33","size_leaf_vector":"0"}},{"base_weights":[7.2279744E-2,8.2846336E-2,-6.217796E-1,2.2620507E-1,4.5485843E-2,-8.983139E-1,-1.06823176E-1,1.7192592E-1,1.0954908E0,3.099394E-2,5.4299426E-1,2.198836E-1,-4.0691152E-1,7.180521E-2,-1.6466719E-1,1.0952538E0,1.070916E-1,1.4590688E-1,1.0325195E0,-9.940291E-1,2.2081478E-1,1.5916986E-2,4.9899492E-1,-1.0861089E0,-8.1766866E-2,-4.8439264E-1,8.6561644E-1],"categories":[],"categories_nodes":[],"categories_segments":[],"categories_sizes":[],"default_left":[true,true,true,true,true,false,false,true,false,true,true,true,true,true,true,false,true,false,false,false,false,false,false,false,false,false,false],"id":5,"left_children":[1,3,5,7,9,-1,-1,11,-1,13,15,17,19,21,23,-1,25,-1,-1,-1,-1,-1,-1,-1,-1,-1,-1],"loss_changes":[2.9422328E0,2.0738916E0,7.6250744E-1,3.595573E0,2.2177806E0,0E0,0E0,2.2177472E0,0E0,2.4251575E0,1.9799888E0,4.144701E0,2.5107112E0,5.9790063E0,3.9187279E0,0E0,3.1010756E0,0E0,0E0,0E0,0E0,0E0,0E0,0E0,0E0,0E0,0E0],"parents":[2147483647,0,0,1,1,2,2,3,3,4,4,7,7,9,9,10,10,11,11,12,12,13,13,14,14,16,16],"right_children":[2,4,6,8,10,-1,-1,12,-1,14,16,18,20,22,24,-1,26,-1,-1,-1,-1,-1,-1,-1,-1,-1,-1],"split_conditions":[2.6031523E0,-6.2667525E-1,2.7279706E0,-6.309023E-1,2.3949862E0,-8.983139E-2,-1.0682317E-2,-6.342741E-1,1.0954908E-1,1.2681751E0,2.4892018E0,-6.409644E-1,-6.311975E-1,1.2013682E-1,1.2930924E0,1.0952538E-1,2.5827641E0,1.4590688E-2,1.0325195E-1,-9.940291E-2,2.2081478E-2,1.5916986E-3,4.9899492E-2,-1.0861089E-1,-8.176687E-3,-4.8439264E-2,8.656164E-2],"split_indices":[0,0,0,1,1,0,0,0,0,1,0,2,0,2,2,0,2,0,0,0,0,0,0,0,0,0,0],"split_type":[0,0,0,0,0,0,0,0,0,0,0,0,0,0,0,0,0,0,0,0,0,0,0,0,0,0,0],"sum_hessian":[3.9316193E2,3.8813348E2,5.028437E0,7.919475E1,3.0893872E2,2.7872326E0,2.2412045E0,7.5667755E1,3.5269985E0,3.0122662E2,7.7121205E0,7.0450905E1,5.2168503E0,2.497636E2,5.146302E1,2.734756E0,4.9773645E0,6.5653786E1,4.7971168E0,2.394095E0,2.8227556E0,2.2178522E2,2.7978376E1,3.248985E0,4.821404E1,2.9996736E0,1.9776907E0],"tree_param":{"num_deleted":"0","num_feature":"3","num_nodes":"27","size_leaf_vector":"0"}},{"base_weights":[6.54908E-2,7.151849E-2,-1.0194341E0,2.0697519E-1,3.7042722E-2,3.8094655E-2,4.4233072E-1,-3.770094E-1,5.114046E-2,1.13763966E-1,-8.7274736E-1,8.24608E-1,2.3248176E-1,1.0961592E-1,-1.0474312E0,5.075175E-1,3.7515096E-2,3.9960057E-2,9.792938E-1,1.2323241E0,5.738869E-1,-5.9603405E-1,4.538025E-1,-7.5843954E-1,5.3954035E-1,-3.587944E-1,1.0846639E0,-8.066393E-1,5.919252E-2],"categories":[],"categories_nodes":[],"categories_segments":[],"categories_sizes":[],"default_left":[true,true,false,true,true,true,true,true,true,true,false,true,true,true,false,true,true,false,false,false,false,false,false,false,false,false,false,false,false],"id":6,"left_children":[1,3,-1,5,7,9,11,13,15,17,-1,19,21,23,-1,25,27,-1,-1,-1,-1,-1,-1,-1,-1,-1,-1,-1,-1],"loss_changes":[2.6473994E0,1.8250031E0,0E0,3.1390314E0,1.8523803E0,3.3608751E0,2.4617448E0,3.5272639E0,1.8749173E0,2.8084369E0,0E0,4.5095396E-1,4.4415746E0,3.008881E0,0E0,4.764016E0,5.4794283E0,0E0,0E0,0E0,0E0,0E0,0E0,0E0,0E0,0E0,0E0,0E0,0E0],"parents":[2147483647,0,0,1,1,3,3,4,4,5,5,6,6,7,7,8,8,9,9,11,11,12,12,13,13,15,15,16,16],"right_children":[2,4,-1,6,8,10,12,14,16,18,-1,20,22,24,-1,26,28,-1,-1,-1,-1,-1,-1,-1,-1,-1,-1,-1,-1],"split_conditions":[2.7628715E0,-6.268433E-1,-1.0194341E-1,-7.244837E-1,-6.2221575E-1,-7.35249E-1,-6.796709E-1,-6.250615E-1,-6.092214E-1,-7.4842507E-1,-8.727474E-2,-7.045161E-1,-6.6272223E-1,-6.2910515E-1,-1.0474312E-1,-6.18436E-1,-5.9966516E-1,3.9960057E-3,9.792938E-2,1.2323242E-1,5.738869E-2,-5.9603404E-2,4.538025E-2,-7.584395E-2,5.3954035E-2,-3.587944E-2,1.0846639E-1,-8.0663934E-2,5.919252E-3],"split_indices":[0,0,0,2,1,1,2,1,2,0,0,2,0,1,0,2,2,0,0,0,0,0,0,0,0,0,0,0,0],"split_type":[0,0,0,0,0,0,0,0,0,0,0,0,0,0,0,0,0,0,0,0,0,0,0,0,0,0,0,0,0],"sum_hessian":[3.926776E2,3.9143692E2,1.2406892E0,7.8399315E1,3.130376E2,4.6322342E1,3.207697E1,9.459797E0,3.035778E2,4.3577213E1,2.74513E0,1.03298235E1,2.1747147E1,5.9659286E0,3.4938688E0,7.749887E0,2.958279E2,4.1117302E1,2.4599125E0,2.442605E0,7.887218E0,4.227688E0,1.7519459E1,1.7229722E0,4.242956E0,3.2499526E0,4.499934E0,6.499905E0,2.89328E2],"tree_param":{"num_deleted":"0","num_feature":"3","num_nodes":"29","size_leaf_vector":"0"}},{"base_weights":[5.8891628E-2,9.4496526E-2,-1.0965147E-1,5.797657E-2,5.322337E-1,-4.1986966E-1,5.6807812E-2,7.46582E-2,-1.0001521E0,1.0281851E0,2.821015E-1,-3.332292E-2,-4.944771E-1,8.2897884E-1,-8.031788E-2,4.9612157E-2,4.4485277E-1,5.759072E-1,1.3863797E0,1.357614E-1,1.1338185E0,-5.008828E-1,5.31252E-1,-1.0551441E0,-3.2534015E-1,2.0387274E-1,9.2940086E-1,-2.6947478E-2,-9.6935016E-1,7.184732E-2,-9.3610364E-1,1.1526774E0,2.5108817E-1,9.167443E-1,-2.860636E-1,3.5121477E-1,-8.500552E-1,-2.7314883E-1,-1.2894268E0,6.447277E-1,-4.9767298E-1,-2.7397817E-1,1.7449725E-1],"categories":[],"categories_nodes":[],"categories_segments":[],"categories_sizes":[],"default_left":[true,true,true,true,true,true,true,true,false,true,true,true,true,true,true,true,true,true,false,true,false,false,false,true,true,false,false,true,false,false,false,false,false,false,false,false,false,false,false,false,false,false,false],"id":7,"left_children":[1,3,5,7,9,11,13,15,-1,17,19,21,23,25,27,29,31,33,-1,35,-1,-1,-1,37,39,-1,-1,41,-1,-1,-1,-1,-1,-1,-1,-1,-1,-1,-1,-1,-1,-1,-1],"loss_changes":[2.3704567E0,5.1683383E0,3.589755E0,5.3931746E0,2.801612E0,6.824026E-1,4.918338E0,2.7369108E0,0E0,4.9391842E-1,2.0827155E0,1.5840781E0,1.5761409E0,2.4983788E-1,1.8633938E0,6.200501E0,2.2795312E0,1.8005977E0,0E0,3.7924173E0,0E0,0E0,0E0,4.2553806E-1,3.1620994E0,0E0,0E0,1.9684722E0,0E0,0E0,0E0,0E0,0E0,0E0,0E0,0E0,0E0,0E0,0E0,0E0,0E0,0E0,0E0],"parents":[2147483647,0,0,1,1,2,2,3,3,4,4,5,5,6,6,7,7,9,9,10,10,11,11,12,12,13,13,14,14,15,15,16,16,17,17,19,19,23,23,24,24,27,27],"right_children":[2,4,6,8,10,12,14,16,-1,18,20,22,24,26,28,30,32,34,-1,36,-1,-1,-1,38,40,-1,-1,42,-1,-1,-1,-1,-1,-1,-1,-1,-1,-1,-1,-1,-1,-1,-1],"split_conditions":[1.17485E0,1.2013682E-1,1.7902431E0,7.2527334E-2,8.419472E-1,1.2143002E0,1.8530614E0,-2.4042031E-1,-1.00015216E-1,4.8098356E-1,1.1422505E0,1.1778276E0,1.2930924E0,1.796569E0,2.7628715E0,-3.1102958E-1,-2.139492E-1,3.68603E-1,1.3863797E-1,1.0770624E0,1.13381855E-1,-5.0088283E-2,5.3125203E-2,1.2681751E0,1.3455493E0,2.0387275E-2,9.2940085E-2,2.3093863E0,-9.693502E-2,7.1847322E-3,-9.361037E-2,1.15267746E-1,2.5108818E-2,9.167443E-2,-2.860636E-2,3.512148E-2,-8.500552E-2,-2.7314885E-2,-1.2894268E-1,6.447277E-2,-4.9767297E-2,-2.7397817E-2,1.7449725E-2],"split_indices":[1,2,2,2,2,2,2,2,0,0,0,2,2,0,0,1,2,1,0,2,0,0,0,1,2,0,0,1,0,0,0,0,0,0,0,0,0,0,0,0,0,0,0],"split_type":[0,0,0,0,0,0,0,0,0,0,0,0,0,0,0,0,0,0,0,0,0,0,0,0,0,0,0,0,0,0,0,0,0,0,0,0,0,0,0,0,0,0,0],"sum_hessian":[3.9228622E2,3.2423138E2,6.8054855E1,3.0030933E2,2.3922045E1,2.323364E1,4.482122E1,2.965634E2,3.7459438E0,6.977263E0,1.6944782E1,3.992878E0,1.9240763E1,5.9983582E0,3.882286E1,2.7883258E2,1.77308E1,4.2361956E0,2.7410676E0,1.5449654E1,1.4951278E0,2.2458026E0,1.7470754E0,3.2451406E0,1.5995622E1,1.249658E0,4.7487E0,3.7596195E1,1.2266643E0,2.7358826E2,5.2443213E0,2.7470255E0,1.4983775E1,2.9902556E0,1.2459399E0,1.3206962E1,2.2426918E0,1.2474065E0,1.9977341E0,1.9994527E0,1.3996169E1,1.6725603E1,2.0870592E1],"tree_param":{"num_deleted":"0","num_feature":"3","num_nodes":"43","size_leaf_vector":"0"}},{"base_weights":[5.3272087E-2,6.2505946E-2,-5.5876416E-1,5.67057E-2,8.007987E-1,-8.6160696E-1,-3.1745948E-2,8.5791685E-2,-9.6421115E-2,5.204999E-2,4.916623E-1,-3.8389722E-1,8.504359E-2,6.740268E-2,-9.2057264E-1,9.57578E-1,2.5806457E-1,-2.6493412E-1,-6.524975E-1,6.389688E-1,-1.0265363E-1],"categories":[],"categories_nodes":[],"categories_segments":[],"categories_sizes":[],"default_left":[true,true,true,true,false,false,false,true,true,true,true,true,true,false,false,false,false,false,false,false,false],"id":8,"left_children":[1,3,5,7,-1,-1,-1,9,11,13,15,17,19,-1,-1,-1,-1,-1,-1,-1,-1],"loss_changes":[2.2561884E0,1.6165442E0,9.210681E-1,1.7281288E0,0E0,0E0,0E0,4.4257584E0,3.2727654E0,4.5598416E0,2.4552493E0,6.0092354E-1,4.1094713E0,0E0,0E0,0E0,0E0,0E0,0E0,0E0,0E0],"parents":[2147483647,0,0,1,1,2,2,3,3,7,7,8,8,9,9,10,10,11,11,12,12],"right_children":[2,4,6,8,-1,-1,-1,10,12,14,16,18,20,-1,-1,-1,-1,-1,-1,-1,-1],"split_conditions":[2.6031523E0,2.5827641E0,2.7279706E0,1.17485E0,8.0079876E-2,-8.61607E-2,-3.1745948E-3,1.2013682E-1,1.7902431E0,7.2527334E-2,8.419472E-1,1.66696E0,1.9144313E0,6.7402683E-3,-9.2057265E-2,9.5757805E-2,2.5806457E-2,-2.6493413E-2,-6.524975E-2,6.389689E-2,-1.0265363E-2],"split_indices":[0,2,0,1,0,0,0,2,2,2,2,0,1,0,0,0,0,0,0,0,0],"split_type":[0,0,0,0,0,0,0,0,0,0,0,0,0,0,0,0,0,0,0,0,0],"sum_hessian":[3.9204245E2,3.871001E2,4.94235E0,3.8515103E2,1.9490557E0,2.735542E0,2.2068076E0,3.2404028E2,6.1110764E1,3.0021075E2,2.3829514E1,2.3216179E1,3.7894585E1,2.9646185E2,3.7489028E0,6.922726E0,1.6906788E1,1.7466578E1,5.7496004E0,8.982247E0,2.8912336E1],"tree_param":{"num_deleted":"0","num_feature":"3","num_nodes":"21","size_leaf_vector":"0"}},{"base_weights":[4.796515E-2,5.3315133E-2,-9.227512E-1,1.7536262E-1,2.2138486E-2,1.2572564E-1,9.9640834E-1,-4.7498187E-1,3.3328928E-2,1.6183722E-1,-5.989993E-1,-9.140338E-2,-9.519399E-1,8.095577E-1,2.6868366E-2,-6.700943E-2,3.147198E-1,-9.3203664E-1,9.2941396E-2,-6.633115E-1,3.4044552E-1,-1.0240206E0,3.8851425E-2],"categories":[],"categories_nodes":[],"categories_segments":[],"categories_sizes":[],"default_left":[true,true,false,true,true,true,false,true,true,true,true,true,false,false,true,false,false,false,false,false,false,false,false],"id":9,"left_children":[1,3,-1,5,7,9,-1,11,13,15,17,19,-1,-1,21,-1,-1,-1,-1,-1,-1,-1,-1],"loss_changes":[2.0885797E0,1.4857371E0,0E0,3.1151621E0,1.7569098E0,2.089157E0,0E0,1.185541E0,1.5179119E0,2.5855212E0,9.6823704E-1,1.4511924E0,0E0,0E0,3.8871489E0,0E0,0E0,0E0,0E0,0E0,0E0,0E0,0E0],"parents":[2147483647,0,0,1,1,3,3,4,4,5,5,7,7,8,8,9,9,10,10,11,11,14,14],"right_children":[2,4,-1,6,8,10,-1,12,14,16,18,20,-1,-1,22,-1,-1,-1,-1,-1,-1,-1,-1],"split_conditions":[2.7628715E0,-6.2667525E-1,-9.227512E-2,-6.309023E-1,-6.223422E-1,-6.3320744E-1,9.964084E-2,-6.2442786E-1,-6.2499166E-1,-7.6816666E-1,-6.321834E-1,-6.2593913E-1,-9.519399E-2,8.0955766E-2,-6.2221575E-1,-6.7009428E-3,3.147198E-2,-9.3203664E-2,9.29414E-3,-6.633115E-2,3.4044553E-2,-1.02402054E-1,3.8851425E-3],"split_indices":[0,0,0,1,0,1,0,0,1,2,1,0,0,0,1,0,0,0,0,0,0,0,0],"split_type":[0,0,0,0,0,0,0,0,0,0,0,0,0,0,0,0,0,0,0,0,0,0,0],"sum_hessian":[3.9169376E2,3.9048672E2,1.207043E0,7.851166E1,3.1197507E2,7.512315E1,3.3885024E0,5.955702E0,3.0601938E2,7.229741E1,2.8257427E0,3.96146E0,1.9942417E0,1.4999055E0,3.0451947E2,2.9180073E1,4.3117336E1,1.6733534E0,1.1523893E0,1.4737527E0,2.4877074E0,2.4810483E0,3.0203842E2],"tree_param":{"num_deleted":"0","num_feature":"3","num_nodes":"23","size_leaf_vector":"0"}}]},"name":"gbtree"},"learner_model_param":{"base_score":"5E-1","num_class":"0","num_feature":"3"},"objective":{"name":"reg:logistic","reg_loss_param":{"scale_pos_weight":"1"}}},"version":[1,5,2]}